#include <math.h>
#include <string.h>
#include <stdio.h>
#include <stdlib.h>
void score(double * input, double * output);
int main(){
   double data[][19] =
    {
    {22.0,   64.0,   20731000.0  ,42324.0  ,54.0    ,1733.0   ,1534.0   ,614.0   ,830.0    ,982.0      , 98857.0   ,40095.0    ,2.46557    ,33.9238,       0.0     ,2.0    ,4.0    ,0.75   ,2.0},//,0
    {22.0,   64.0,   61577100.0  ,81271.0  ,12.0    ,1740.0   ,3824.0   ,3281.0  ,2220.0   ,2173.0     ,113634.0   ,191412.0   ,0.593662   ,74.4741,       0.0     ,2.0    ,4.0    ,1.25   ,3.0},//,1
    {22.0,   64.0,   194334000.0 ,196127.0 ,0.0     ,28930    ,37683.0  ,12106.0 ,25490.0  ,3524.0     ,550910.0   ,725214.0   ,0.759652   ,311554.0,      1.0     ,2.0    ,4.0    ,2.0    ,4.0},//,1
    {22.0,   64.0,   13003400.0  ,27540.0  ,0.0     ,299.0    ,153.0    ,40.0    ,3.0      ,110.0      ,43714.0    ,32190.0    ,1358.0     ,18.5312,       2.0     ,1.75   ,3.0    ,0.0    ,0.0},//,1
    {22.0,   64.0,   83152500.0  ,108569.0 ,1.0     ,3818.0   ,7431.0   ,3888.0  ,1181.0   ,5442.0     ,155796.0   ,159304.0   ,0.977979   ,76.9287,       2.0     ,2.0    ,4.0    ,1.0    ,3.0},//,1
    {22.0,   64.0,   130638000.0 ,124416.0 ,1.0     ,4250.0   ,4738.0   ,932.0   ,1216.0   ,81.0       ,368644.0   ,424320.0   ,0.868788   ,193595.0,      0.0     ,2.0    ,4.0    ,2.5    ,4.0},//,0
    {22.0,   64.0,   8758690.0   ,23945.0  ,44.0    ,152.0    ,49.0     ,1.0     ,22.0     ,2.0        ,34897.0    ,30745.0    ,1.13505    ,16.0259,       0.0     ,1.0    ,0.0    ,0.0    ,0.0},//,0
    {22.0,   64.0,   14388500.0  ,33181.0  ,0.0     ,111.0    ,81.0     ,16.0    ,35.0     ,14.0       ,41313.0    ,34809.0    ,1.18685    ,18.5845,       0.0     ,2.0    ,4.0    ,0.5    ,2.0},//,1
    {22.0,   64.0,   106462000.0 ,126276.0 ,0.0     ,18517    ,27641    ,262     ,3335     ,27199      ,237904.0   ,236514     ,1.00588    ,115825.0,      2.0     ,2.0    ,4.0    ,1.5    ,4.0},//,1
    {22.0,   64.0,   106439000.0 ,120458.0 ,1.0     ,3440.0   ,4282.0   ,813.0   ,2755.0   ,1210.0     ,242163.0   ,732809.0   ,0.330459   ,238.03,        1.0     ,2.0    ,4.0    ,0.75   ,2.0},//,1
    {22.0,   64.0,   89682400.0  ,105814.0 ,46.0    ,18287.0  ,22207.0  ,7893.0  ,2242.0   ,18036.0    ,263338.0   ,137108.0   ,1.92066    ,97.7651,       0.0     ,2.25   ,4.0    ,1.0    ,4.0}//,1
       };
    ///*
    int i = 0;
    int j = 0; 
    for(i = 0; i < 1; ++i){
        for(j = 0; i < 10; ++i){
            double * saida = malloc(sizeof(double)*19);    
            double * v = &data[i][j]; 
            score(v, saida);
            printf("saida [%lf, %lf]\n", saida[0], saida[1]);
            printf("classe %lf\n", round(saida[1]));
        }
    }
	return 0;
}

void score(double * input, double * output) {
/*
    int i = 0;
    for(i = 0; i<19; ++i){
        printf("%f\n", input[i]);
    }
*/
    double var0;
    if ((input[16]) >= (2.5)) {
        if ((input[10]) >= (144425.0)) {
            if ((input[16]) >= (3.5)) {
                var0 = 0.17946635;
            } else {
                var0 = 0.11016931;
            }
        } else {
            if ((input[2]) >= (8287330.0)) {
                var0 = 0.08310794;
            } else {
                var0 = -0.101761974;
            }
        }
    } else {
        if ((input[2]) >= (11901650.0)) {
            if ((input[10]) >= (152883.5)) {
                var0 = 0.05438174;
            } else {
                var0 = -0.05688199;
            }
        } else {
            if ((input[2]) >= (5358900.0)) {
                var0 = -0.120307855;
            } else {
                var0 = -0.17317815;
            }
        }
    }
    double var1;
    if ((input[16]) >= (1.5)) {
        if ((input[16]) >= (3.5)) {
            if ((input[2]) >= (9568295.0)) {
                var1 = 0.15055025;
            } else {
                var1 = -0.04469041;
            }
        } else {
            if ((input[10]) >= (124724.0)) {
                var1 = 0.078065515;
            } else {
                var1 = -0.027623741;
            }
        }
    } else {
        if ((input[2]) >= (10244350.0)) {
            if ((input[2]) >= (47732300.0)) {
                var1 = 0.060158677;
            } else {
                var1 = -0.06354987;
            }
        } else {
            if ((input[2]) >= (3831700.0)) {
                var1 = -0.12365738;
            } else {
                var1 = -0.16896197;
            }
        }
    }
    double var2;
    if ((input[16]) >= (2.5)) {
        if ((input[11]) >= (157390.5)) {
            if ((input[16]) >= (3.5)) {
                var2 = 0.15328978;
            } else {
                var2 = 0.09214999;
            }
        } else {
            if ((input[2]) >= (8457930.0)) {
                var2 = 0.068034895;
            } else {
                var2 = -0.0799252;
            }
        }
    } else {
        if ((input[2]) >= (13287550.0)) {
            if ((input[16]) >= (0.5)) {
                var2 = 0.023856988;
            } else {
                var2 = -0.05647248;
            }
        } else {
            if ((input[2]) >= (6331205.0)) {
                var2 = -0.091163024;
            } else {
                var2 = -0.14035052;
            }
        }
    }
    double var3;
    if ((input[2]) >= (23697850.0)) {
        if ((input[16]) >= (3.5)) {
            if ((input[1]) >= (48.0)) {
                var3 = 0.14643423;
            } else {
                var3 = 0.092955194;
            }
        } else {
            if ((input[10]) >= (49068.5)) {
                var3 = 0.04225907;
            } else {
                var3 = -0.1014893;
            }
        }
    } else {
        if ((input[2]) >= (8161220.0)) {
            if ((input[1]) >= (48.0)) {
                var3 = 0.04027236;
            } else {
                var3 = -0.063493155;
            }
        } else {
            if ((input[2]) >= (3611735.0)) {
                var3 = -0.107099526;
            } else {
                var3 = -0.14780928;
            }
        }
    }
    double var4;
    if ((input[16]) >= (0.5)) {
        if ((input[11]) >= (158677.0)) {
            if ((input[1]) >= (48.0)) {
                var4 = 0.12909561;
            } else {
                var4 = 0.05945151;
            }
        } else {
            if ((input[16]) >= (3.5)) {
                var4 = 0.07289597;
            } else {
                var4 = -0.02268531;
            }
        }
    } else {
        if ((input[2]) >= (9101945.0)) {
            if ((input[7]) >= (504.5)) {
                var4 = -0.038730975;
            } else {
                var4 = -0.097683735;
            }
        } else {
            if ((input[2]) >= (3532730.0)) {
                var4 = -0.10125414;
            } else {
                var4 = -0.1397454;
            }
        }
    }
    double var5;
    if ((input[2]) >= (25222250.0)) {
        if ((input[10]) >= (66020.5)) {
            if ((input[16]) >= (3.5)) {
                var5 = 0.123956226;
            } else {
                var5 = 0.04816002;
            }
        } else {
            if ((input[10]) >= (40689.5)) {
                var5 = -0.013743234;
            } else {
                var5 = -0.10964707;
            }
        }
    } else {
        if ((input[2]) >= (8688030.0)) {
            if ((input[16]) >= (3.5)) {
                var5 = 0.0690283;
            } else {
                var5 = -0.04703569;
            }
        } else {
            if ((input[2]) >= (3831700.0)) {
                var5 = -0.08948328;
            } else {
                var5 = -0.12972786;
            }
        }
    }
    double var6;
    if ((input[16]) >= (0.5)) {
        if ((input[10]) >= (158702.5)) {
            if ((input[1]) >= (48.0)) {
                var6 = 0.1185895;
            } else {
                var6 = 0.04696281;
            }
        } else {
            if ((input[6]) >= (310.5)) {
                var6 = 0.014767234;
            } else {
                var6 = -0.09751338;
            }
        }
    } else {
        if ((input[2]) >= (6879210.0)) {
            if ((input[7]) >= (1187.5)) {
                var6 = -0.032372788;
            } else {
                var6 = -0.08038832;
            }
        } else {
            if ((input[2]) >= (3109040.0)) {
                var6 = -0.095149346;
            } else {
                var6 = -0.13002725;
            }
        }
    }
    double var7;
    if ((input[2]) >= (19551150.0)) {
        if ((input[16]) >= (3.5)) {
            if ((input[6]) >= (233.5)) {
                var7 = 0.11151307;
            } else {
                var7 = 0.0010076743;
            }
        } else {
            if ((input[6]) >= (1407.5)) {
                var7 = 0.026859049;
            } else {
                var7 = -0.078995205;
            }
        }
    } else {
        if ((input[2]) >= (6848110.0)) {
            if ((input[16]) >= (1.5)) {
                var7 = 0.0012367727;
            } else {
                var7 = -0.05497847;
            }
        } else {
            if ((input[2]) >= (3078400.0)) {
                var7 = -0.087853484;
            } else {
                var7 = -0.12523352;
            }
        }
    }
    double var8;
    if ((input[2]) >= (33491550.0)) {
        if ((input[10]) >= (46931.0)) {
            if ((input[6]) >= (233.5)) {
                var8 = 0.085493706;
            } else {
                var8 = -0.0602781;
            }
        } else {
            if ((input[10]) >= (34568.5)) {
                var8 = -0.04584114;
            } else {
                var8 = -0.10390215;
            }
        }
    } else {
        if ((input[2]) >= (9102310.0)) {
            if ((input[1]) >= (48.0)) {
                var8 = 0.052392047;
            } else {
                var8 = -0.037500605;
            }
        } else {
            if ((input[2]) >= (4244595.0)) {
                var8 = -0.06951495;
            } else {
                var8 = -0.1093198;
            }
        }
    }
    double var9;
    if ((input[16]) >= (1.5)) {
        if ((input[11]) >= (163309.0)) {
            if ((input[14]) >= (0.5)) {
                var9 = 0.11384078;
            } else {
                var9 = 0.06504739;
            }
        } else {
            if ((input[6]) >= (403.5)) {
                var9 = 0.027502581;
            } else {
                var9 = -0.059899222;
            }
        }
    } else {
        if ((input[2]) >= (10830550.0)) {
            if ((input[6]) >= (433.5)) {
                var9 = -0.015453924;
            } else {
                var9 = -0.11342829;
            }
        } else {
            if ((input[2]) >= (3706415.0)) {
                var9 = -0.06677645;
            } else {
                var9 = -0.10922468;
            }
        }
    }
    double var10;
    if ((input[2]) >= (36330700.0)) {
        if ((input[11]) >= (129471.0)) {
            if ((input[14]) >= (0.5)) {
                var10 = 0.11112609;
            } else {
                var10 = 0.057753183;
            }
        } else {
            if ((input[6]) >= (202.5)) {
                var10 = 0.030712387;
            } else {
                var10 = -0.07321563;
            }
        }
    } else {
        if ((input[2]) >= (7328185.0)) {
            if ((input[1]) >= (48.0)) {
                var10 = 0.042192973;
            } else {
                var10 = -0.034796327;
            }
        } else {
            if ((input[2]) >= (3108725.0)) {
                var10 = -0.07024409;
            } else {
                var10 = -0.11217506;
            }
        }
    }
    double var11;
    if ((input[16]) >= (2.5)) {
        if ((input[10]) >= (177296.0)) {
            if ((input[1]) >= (48.0)) {
                var11 = 0.10447067;
            } else {
                var11 = 0.047583465;
            }
        } else {
            if ((input[6]) >= (379.5)) {
                var11 = 0.044759315;
            } else {
                var11 = -0.037155934;
            }
        }
    } else {
        if ((input[2]) >= (12864350.0)) {
            if ((input[6]) >= (443.5)) {
                var11 = -0.00089778594;
            } else {
                var11 = -0.104593135;
            }
        } else {
            if ((input[2]) >= (4451475.0)) {
                var11 = -0.051105525;
            } else {
                var11 = -0.094563596;
            }
        }
    }
    double var12;
    if ((input[2]) >= (39681050.0)) {
        if ((input[6]) >= (283.5)) {
            if ((input[1]) >= (48.0)) {
                var12 = 0.10076547;
            } else {
                var12 = 0.038950462;
            }
        } else {
            if ((input[2]) >= (137628510.0)) {
                var12 = 0.11927482;
            } else {
                var12 = -0.07925182;
            }
        }
    } else {
        if ((input[2]) >= (6623735.0)) {
            if ((input[1]) >= (48.0)) {
                var12 = 0.03841227;
            } else {
                var12 = -0.030502537;
            }
        } else {
            if ((input[2]) >= (2793670.0)) {
                var12 = -0.06571826;
            } else {
                var12 = -0.11006897;
            }
        }
    }
    double var13;
    if ((input[16]) >= (3.5)) {
        if ((input[14]) >= (0.5)) {
            if ((input[1]) >= (48.0)) {
                var13 = 0.119110085;
            } else {
                var13 = 0.039126918;
            }
        } else {
            if ((input[6]) >= (960.5)) {
                var13 = 0.0662771;
            } else {
                var13 = -0.024582548;
            }
        }
    } else {
        if ((input[2]) >= (9957175.0)) {
            if ((input[6]) >= (288.5)) {
                var13 = -0.0026363453;
            } else {
                var13 = -0.1027311;
            }
        } else {
            if ((input[2]) >= (3313075.0)) {
                var13 = -0.0516106;
            } else {
                var13 = -0.099539325;
            }
        }
    }
    double var14;
    if ((input[16]) >= (0.5)) {
        if ((input[2]) >= (52682600.0)) {
            if ((input[14]) >= (0.5)) {
                var14 = 0.10373638;
            } else {
                var14 = 0.046866138;
            }
        } else {
            if ((input[6]) >= (642.5)) {
                var14 = 0.017595809;
            } else {
                var14 = -0.06848875;
            }
        }
    } else {
        if ((input[7]) >= (2044.5)) {
            if ((input[2]) >= (5035635.0)) {
                var14 = -0.009855576;
            } else {
                var14 = -0.06544196;
            }
        } else {
            if ((input[6]) >= (324.5)) {
                var14 = -0.053917307;
            } else {
                var14 = -0.102856;
            }
        }
    }
    double var15;
    if ((input[2]) >= (38953950.0)) {
        if ((input[14]) >= (0.5)) {
            if ((input[1]) >= (48.0)) {
                var15 = 0.12025755;
            } else {
                var15 = 0.037732303;
            }
        } else {
            if ((input[9]) >= (1079.5)) {
                var15 = 0.05441561;
            } else {
                var15 = -0.0090742735;
            }
        }
    } else {
        if ((input[2]) >= (6075585.0)) {
            if ((input[6]) >= (252.5)) {
                var15 = -0.011675074;
            } else {
                var15 = -0.102670506;
            }
        } else {
            if ((input[2]) >= (2611650.0)) {
                var15 = -0.05813374;
            } else {
                var15 = -0.10622629;
            }
        }
    }
    double var16;
    if ((input[16]) >= (3.5)) {
        if ((input[14]) >= (0.5)) {
            if ((input[1]) >= (48.0)) {
                var16 = 0.11301464;
            } else {
                var16 = 0.029370014;
            }
        } else {
            if ((input[6]) >= (1138.5)) {
                var16 = 0.0604334;
            } else {
                var16 = -0.014443847;
            }
        }
    } else {
        if ((input[2]) >= (13731550.0)) {
            if ((input[8]) >= (1521.5)) {
                var16 = 0.019502565;
            } else {
                var16 = -0.031202644;
            }
        } else {
            if ((input[2]) >= (3532730.0)) {
                var16 = -0.037267487;
            } else {
                var16 = -0.08822997;
            }
        }
    }
    double var17;
    if ((input[16]) >= (0.5)) {
        if ((input[10]) >= (177939.5)) {
            if ((input[1]) >= (48.0)) {
                var17 = 0.08223897;
            } else {
                var17 = 0.016474696;
            }
        } else {
            if ((input[6]) >= (234.5)) {
                var17 = 0.012136449;
            } else {
                var17 = -0.06446041;
            }
        }
    } else {
        if ((input[12]) >= (0.417602)) {
            if ((input[13]) >= (77.768555)) {
                var17 = -0.018030068;
            } else {
                var17 = -0.07129664;
            }
        } else {
            if ((input[6]) >= (19285.0)) {
                var17 = -0.05720497;
            } else {
                var17 = -0.09358024;
            }
        }
    }
    double var18;
    if ((input[2]) >= (50186100.0)) {
        if ((input[14]) >= (0.5)) {
            if ((input[1]) >= (48.0)) {
                var18 = 0.11559659;
            } else {
                var18 = 0.050531983;
            }
        } else {
            if ((input[17]) >= (0.375)) {
                var18 = 0.048396513;
            } else {
                var18 = -0.028154984;
            }
        }
    } else {
        if ((input[2]) >= (5557815.0)) {
            if ((input[1]) >= (48.0)) {
                var18 = 0.033648696;
            } else {
                var18 = -0.01970325;
            }
        } else {
            if ((input[2]) >= (2580330.0)) {
                var18 = -0.05168721;
            } else {
                var18 = -0.10137488;
            }
        }
    }
    double var19;
    if ((input[16]) >= (3.5)) {
        if ((input[14]) >= (0.5)) {
            if ((input[1]) >= (48.0)) {
                var19 = 0.10735773;
            } else {
                var19 = 0.024455851;
            }
        } else {
            if ((input[2]) >= (22238550.0)) {
                var19 = 0.05023251;
            } else {
                var19 = -0.021776177;
            }
        }
    } else {
        if ((input[7]) >= (1290.5)) {
            if ((input[1]) >= (48.0)) {
                var19 = 0.09279963;
            } else {
                var19 = -0.0062444317;
            }
        } else {
            if ((input[6]) >= (265.5)) {
                var19 = -0.03303883;
            } else {
                var19 = -0.08925274;
            }
        }
    }
    double var20;
    if ((input[2]) >= (18766700.0)) {
        if ((input[1]) >= (48.0)) {
            if ((input[14]) >= (0.5)) {
                var20 = 0.11464436;
            } else {
                var20 = 0.017886763;
            }
        } else {
            if ((input[7]) >= (5473.5)) {
                var20 = 0.039031737;
            } else {
                var20 = -0.014698652;
            }
        }
    } else {
        if ((input[12]) >= (0.41964352)) {
            if ((input[1]) >= (24.0)) {
                var20 = -0.043615527;
            } else {
                var20 = -0.004480345;
            }
        } else {
            if ((input[1]) >= (48.0)) {
                var20 = 0.04113721;
            } else {
                var20 = -0.08377417;
            }
        }
    }
    double var21;
    if ((input[2]) >= (53304700.0)) {
        if ((input[14]) >= (0.5)) {
            if ((input[1]) >= (48.0)) {
                var21 = 0.110485606;
            } else {
                var21 = 0.05125307;
            }
        } else {
            if ((input[15]) >= (1.875)) {
                var21 = 0.04617405;
            } else {
                var21 = -0.02935495;
            }
        }
    } else {
        if ((input[7]) >= (602.5)) {
            if ((input[1]) >= (48.0)) {
                var21 = 0.08364182;
            } else {
                var21 = -0.011274702;
            }
        } else {
            if ((input[6]) >= (228.5)) {
                var21 = -0.032680348;
            } else {
                var21 = -0.088129394;
            }
        }
    }
    double var22;
    if ((input[16]) >= (0.5)) {
        if ((input[2]) >= (60920050.0)) {
            if ((input[14]) >= (0.5)) {
                var22 = 0.08789782;
            } else {
                var22 = 0.036219653;
            }
        } else {
            if ((input[6]) >= (228.5)) {
                var22 = 0.013432632;
            } else {
                var22 = -0.07668184;
            }
        }
    } else {
        if ((input[12]) >= (0.39877)) {
            if ((input[8]) >= (2807.5)) {
                var22 = 0.004851323;
            } else {
                var22 = -0.03490745;
            }
        } else {
            if ((input[6]) >= (12689.5)) {
                var22 = -0.054299563;
            } else {
                var22 = -0.08602785;
            }
        }
    }
    double var23;
    if ((input[16]) >= (3.5)) {
        if ((input[14]) >= (0.5)) {
            if ((input[1]) >= (48.0)) {
                var23 = 0.10099101;
            } else {
                var23 = 0.017701976;
            }
        } else {
            if ((input[5]) >= (4522.5)) {
                var23 = 0.062723495;
            } else {
                var23 = 0.0015977959;
            }
        }
    } else {
        if ((input[2]) >= (5018480.0)) {
            if ((input[6]) >= (433.5)) {
                var23 = -0.0016332209;
            } else {
                var23 = -0.065255485;
            }
        } else {
            if ((input[2]) >= (2579435.0)) {
                var23 = -0.044587873;
            } else {
                var23 = -0.09653646;
            }
        }
    }
    double var24;
    if ((input[2]) >= (13933350.0)) {
        if ((input[1]) >= (48.0)) {
            if ((input[14]) >= (0.5)) {
                var24 = 0.10971536;
            } else {
                var24 = 0.005985158;
            }
        } else {
            if ((input[8]) >= (5593.5)) {
                var24 = 0.027003393;
            } else {
                var24 = -0.013131904;
            }
        }
    } else {
        if ((input[2]) >= (3078400.0)) {
            if ((input[1]) >= (24.0)) {
                var24 = -0.04535401;
            } else {
                var24 = -0.0039188764;
            }
        } else {
            if ((input[2]) >= (2281325.0)) {
                var24 = -0.062365722;
            } else {
                var24 = -0.10166011;
            }
        }
    }
    double var25;
    if ((input[2]) >= (52688650.0)) {
        if ((input[2]) >= (141015000.0)) {
            if ((input[3]) >= (161768.0)) {
                var25 = 0.11022462;
            } else {
                var25 = -0.1341552;
            }
        } else {
            if ((input[6]) >= (233.5)) {
                var25 = 0.043075975;
            } else {
                var25 = -0.062021654;
            }
        }
    } else {
        if ((input[12]) >= (0.36002302)) {
            if ((input[6]) >= (566.5)) {
                var25 = -0.00055653055;
            } else {
                var25 = -0.054906506;
            }
        } else {
            if ((input[1]) >= (48.0)) {
                var25 = 0.029243642;
            } else {
                var25 = -0.07687645;
            }
        }
    }
    double var26;
    if ((input[2]) >= (9614275.0)) {
        if ((input[1]) >= (48.0)) {
            if ((input[14]) >= (0.5)) {
                var26 = 0.10617971;
            } else {
                var26 = 0.005668883;
            }
        } else {
            if ((input[12]) >= (1.904525)) {
                var26 = -0.052904606;
            } else {
                var26 = 0.003888186;
            }
        }
    } else {
        if ((input[3]) >= (8429.5)) {
            if ((input[2]) >= (2610945.0)) {
                var26 = -0.029095462;
            } else {
                var26 = -0.092147246;
            }
        } else {
            if ((input[11]) >= (5153.0)) {
                var26 = 0.09714068;
            } else {
                var26 = -0.062219538;
            }
        }
    }
    double var27;
    if ((input[7]) >= (3776.5)) {
        if ((input[1]) >= (48.0)) {
            if ((input[14]) >= (0.5)) {
                var27 = 0.11247697;
            } else {
                var27 = 0.07432007;
            }
        } else {
            if ((input[0]) >= (34.5)) {
                var27 = -0.024631498;
            } else {
                var27 = 0.019150052;
            }
        }
    } else {
        if ((input[16]) >= (3.5)) {
            if ((input[2]) >= (149279490.0)) {
                var27 = 0.109567896;
            } else {
                var27 = 0.022427026;
            }
        } else {
            if ((input[12]) >= (0.4079825)) {
                var27 = -0.016522288;
            } else {
                var27 = -0.06698831;
            }
        }
    }
    double var28;
    if ((input[2]) >= (5590690.0)) {
        if ((input[7]) >= (38.5)) {
            if ((input[1]) >= (48.0)) {
                var28 = 0.05489753;
            } else {
                var28 = -0.0028677944;
            }
        } else {
            if ((input[3]) >= (431418.5)) {
                var28 = -0.105111696;
            } else {
                var28 = -0.025045052;
            }
        }
    } else {
        if ((input[2]) >= (2456155.0)) {
            if ((input[1]) >= (24.0)) {
                var28 = -0.07006602;
            } else {
                var28 = -0.01894662;
            }
        } else {
            if ((input[2]) >= (2082225.0)) {
                var28 = -0.075137;
            } else {
                var28 = -0.10193328;
            }
        }
    }
    double var29;
    if ((input[8]) >= (2807.5)) {
        if ((input[1]) >= (48.0)) {
            if ((input[14]) >= (0.5)) {
                var29 = 0.10954322;
            } else {
                var29 = 0.05933969;
            }
        } else {
            if ((input[12]) >= (0.4982435)) {
                var29 = 0.015169203;
            } else {
                var29 = -0.0399666;
            }
        }
    } else {
        if ((input[12]) >= (1.989475)) {
            if ((input[1]) >= (48.0)) {
                var29 = 0.060615398;
            } else {
                var29 = -0.074520014;
            }
        } else {
            if ((input[6]) >= (234.5)) {
                var29 = -0.005086334;
            } else {
                var29 = -0.05947904;
            }
        }
    }
    double var30;
    if ((input[12]) >= (0.312086)) {
        if ((input[12]) >= (1.834)) {
            if ((input[1]) >= (48.0)) {
                var30 = 0.06642552;
            } else {
                var30 = -0.04901244;
            }
        } else {
            if ((input[6]) >= (310.5)) {
                var30 = 0.011311004;
            } else {
                var30 = -0.049553838;
            }
        }
    } else {
        if ((input[10]) >= (53467.0)) {
            if ((input[13]) >= (248.22949)) {
                var30 = -0.055184413;
            } else {
                var30 = 0.069658704;
            }
        } else {
            if ((input[9]) >= (1594.5)) {
                var30 = -0.0563788;
            } else {
                var30 = -0.0871283;
            }
        }
    }
    double var31;
    if ((input[2]) >= (34256650.0)) {
        if ((input[3]) >= (677341.0)) {
            if ((input[6]) >= (1139.5)) {
                var31 = 0.09321153;
            } else {
                var31 = -0.037889477;
            }
        } else {
            if ((input[7]) >= (8222.5)) {
                var31 = 0.057342768;
            } else {
                var31 = 0.007977798;
            }
        }
    } else {
        if ((input[12]) >= (0.36002302)) {
            if ((input[8]) >= (56.5)) {
                var31 = -0.0022308412;
            } else {
                var31 = -0.056330513;
            }
        } else {
            if ((input[1]) >= (48.0)) {
                var31 = 0.019709934;
            } else {
                var31 = -0.06568398;
            }
        }
    }
    double var32;
    if ((input[2]) >= (4698355.0)) {
        if ((input[8]) >= (3876.5)) {
            if ((input[1]) >= (48.0)) {
                var32 = 0.08467527;
            } else {
                var32 = 0.012143758;
            }
        } else {
            if ((input[16]) >= (3.5)) {
                var32 = 0.025616696;
            } else {
                var32 = -0.013006501;
            }
        }
    } else {
        if ((input[2]) >= (2285070.0)) {
            if ((input[3]) >= (6542.0)) {
                var32 = -0.038488112;
            } else {
                var32 = 0.060055263;
            }
        } else {
            if ((input[2]) >= (2003665.0)) {
                var32 = -0.081368126;
            } else {
                var32 = -0.10113561;
            }
        }
    }
    double var33;
    if ((input[7]) >= (4022.5)) {
        if ((input[1]) >= (48.0)) {
            if ((input[14]) >= (0.5)) {
                var33 = 0.10670004;
            } else {
                var33 = 0.05989432;
            }
        } else {
            if ((input[12]) >= (2.567895)) {
                var33 = -0.03693714;
            } else {
                var33 = 0.015371933;
            }
        }
    } else {
        if ((input[12]) >= (0.3037355)) {
            if ((input[12]) >= (1.810665)) {
                var33 = -0.044696588;
            } else {
                var33 = -0.002424395;
            }
        } else {
            if ((input[11]) >= (1279750.5)) {
                var33 = -0.25883865;
            } else {
                var33 = -0.065145195;
            }
        }
    }
    double var34;
    if ((input[2]) >= (3808660.0)) {
        if ((input[2]) >= (56842000.0)) {
            if ((input[2]) >= (155316510.0)) {
                var34 = 0.10907233;
            } else {
                var34 = 0.02915199;
            }
        } else {
            if ((input[7]) >= (36.5)) {
                var34 = 0.00020310092;
            } else {
                var34 = -0.050755363;
            }
        }
    } else {
        if ((input[2]) >= (2281325.0)) {
            if ((input[1]) >= (24.0)) {
                var34 = -0.07838505;
            } else {
                var34 = -0.026757691;
            }
        } else {
            if ((input[2]) >= (2003665.0)) {
                var34 = -0.078723125;
            } else {
                var34 = -0.099852435;
            }
        }
    }
    double var35;
    if ((input[12]) >= (0.357355)) {
        if ((input[12]) >= (1.980905)) {
            if ((input[1]) >= (48.0)) {
                var35 = 0.06500448;
            } else {
                var35 = -0.044813506;
            }
        } else {
            if ((input[6]) >= (240.5)) {
                var35 = 0.009673709;
            } else {
                var35 = -0.047067214;
            }
        }
    } else {
        if ((input[10]) >= (53234.5)) {
            if ((input[13]) >= (247.726)) {
                var35 = -0.03419335;
            } else {
                var35 = 0.06142505;
            }
        } else {
            if ((input[3]) >= (8631.0)) {
                var35 = -0.06394672;
            } else {
                var35 = 0.01565663;
            }
        }
    }
    double var36;
    if ((input[16]) >= (0.5)) {
        if ((input[2]) >= (141015000.0)) {
            if ((input[3]) >= (163008.0)) {
                var36 = 0.1042059;
            } else {
                var36 = -0.16578983;
            }
        } else {
            if ((input[9]) >= (1195.5)) {
                var36 = 0.021546302;
            } else {
                var36 = -0.007400289;
            }
        }
    } else {
        if ((input[4]) >= (54.5)) {
            if ((input[3]) >= (54964.0)) {
                var36 = 0.012996179;
            } else {
                var36 = 0.08985373;
            }
        } else {
            if ((input[4]) >= (46.5)) {
                var36 = -0.060735125;
            } else {
                var36 = -0.012140977;
            }
        }
    }
    double var37;
    if ((input[2]) >= (3319285.0)) {
        if ((input[12]) >= (0.274624)) {
            if ((input[8]) >= (5770.5)) {
                var37 = 0.022063725;
            } else {
                var37 = -0.0043121683;
            }
        } else {
            if ((input[10]) >= (275909.5)) {
                var37 = -0.211689;
            } else {
                var37 = -0.05749876;
            }
        }
    } else {
        if ((input[2]) >= (2281325.0)) {
            if ((input[1]) >= (24.0)) {
                var37 = -0.07771725;
            } else {
                var37 = -0.029777357;
            }
        } else {
            if ((input[2]) >= (2003665.0)) {
                var37 = -0.07543632;
            } else {
                var37 = -0.09849849;
            }
        }
    }
    double var38;
    if ((input[2]) >= (54238550.0)) {
        if ((input[14]) >= (0.5)) {
            if ((input[1]) >= (48.0)) {
                var38 = 0.09797708;
            } else {
                var38 = 0.0337786;
            }
        } else {
            if ((input[17]) >= (0.625)) {
                var38 = 0.030173302;
            } else {
                var38 = -0.028429542;
            }
        }
    } else {
        if ((input[12]) >= (0.5048915)) {
            if ((input[12]) >= (1.784695)) {
                var38 = -0.02902103;
            } else {
                var38 = 0.005047723;
            }
        } else {
            if ((input[1]) >= (48.0)) {
                var38 = 0.046292365;
            } else {
                var38 = -0.04155262;
            }
        }
    }
    double var39;
    if ((input[8]) >= (1020.5)) {
        if ((input[1]) >= (48.0)) {
            if ((input[14]) >= (0.5)) {
                var39 = 0.10301596;
            } else {
                var39 = 0.026705174;
            }
        } else {
            if ((input[0]) >= (34.5)) {
                var39 = -0.031780105;
            } else {
                var39 = 0.008288874;
            }
        }
    } else {
        if ((input[3]) >= (28701.5)) {
            if ((input[16]) >= (1.5)) {
                var39 = -0.002027867;
            } else {
                var39 = -0.03593753;
            }
        } else {
            if ((input[2]) >= (11210350.0)) {
                var39 = 0.05095565;
            } else {
                var39 = -0.016891977;
            }
        }
    }
    double var40;
    if ((input[2]) >= (2798560.0)) {
        if ((input[3]) >= (8049.5)) {
            if ((input[7]) >= (605.5)) {
                var40 = 0.0062073357;
            } else {
                var40 = -0.016278397;
            }
        } else {
            if ((input[11]) >= (4760.0)) {
                var40 = 0.1189997;
            } else {
                var40 = -0.043274593;
            }
        }
    } else {
        if ((input[2]) >= (2082225.0)) {
            if ((input[3]) >= (13661.0)) {
                var40 = -0.055796165;
            } else {
                var40 = -0.0012245056;
            }
        } else {
            if ((input[2]) >= (1858865.0)) {
                var40 = -0.084447615;
            } else {
                var40 = -0.09955838;
            }
        }
    }
    double var41;
    if ((input[12]) >= (0.4240295)) {
        if ((input[12]) >= (2.07491)) {
            if ((input[1]) >= (48.0)) {
                var41 = 0.062825106;
            } else {
                var41 = -0.03980555;
            }
        } else {
            if ((input[3]) >= (48737.5)) {
                var41 = -0.0010778885;
            } else {
                var41 = 0.026159192;
            }
        }
    } else {
        if ((input[10]) >= (55175.5)) {
            if ((input[11]) >= (1282666.5)) {
                var41 = -0.12531151;
            } else {
                var41 = 0.018767796;
            }
        } else {
            if ((input[3]) >= (8606.0)) {
                var41 = -0.04959185;
            } else {
                var41 = 0.02209658;
            }
        }
    }
    double var42;
    if ((input[7]) >= (8741.5)) {
        if ((input[1]) >= (48.0)) {
            if ((input[2]) >= (8751275.0)) {
                var42 = 0.09578585;
            } else {
                var42 = -0.0053729597;
            }
        } else {
            if ((input[2]) >= (17850750.0)) {
                var42 = 0.033246737;
            } else {
                var42 = 0.0024151553;
            }
        }
    } else {
        if ((input[12]) >= (1.73662)) {
            if ((input[1]) >= (48.0)) {
                var42 = 0.054403465;
            } else {
                var42 = -0.042542662;
            }
        } else {
            if ((input[3]) >= (53860.5)) {
                var42 = -0.008988953;
            } else {
                var42 = 0.015574882;
            }
        }
    }
    double var43;
    if ((input[2]) >= (2611650.0)) {
        if ((input[7]) >= (36.5)) {
            if ((input[1]) >= (48.0)) {
                var43 = 0.037704613;
            } else {
                var43 = -0.0025163582;
            }
        } else {
            if ((input[3]) >= (427783.0)) {
                var43 = -0.08663556;
            } else {
                var43 = -0.013499442;
            }
        }
    } else {
        if ((input[2]) >= (2082225.0)) {
            if ((input[1]) >= (24.0)) {
                var43 = -0.08491781;
            } else {
                var43 = -0.044488646;
            }
        } else {
            if ((input[2]) >= (1858865.0)) {
                var43 = -0.08213004;
            } else {
                var43 = -0.09862542;
            }
        }
    }
    double var44;
    if ((input[8]) >= (4687.5)) {
        if ((input[1]) >= (48.0)) {
            if ((input[14]) >= (0.5)) {
                var44 = 0.09955857;
            } else {
                var44 = 0.050020617;
            }
        } else {
            if ((input[12]) >= (0.5706085)) {
                var44 = 0.015835086;
            } else {
                var44 = -0.017402917;
            }
        }
    } else {
        if ((input[2]) >= (141016000.0)) {
            if ((input[3]) >= (163022.5)) {
                var44 = 0.10146984;
            } else {
                var44 = -0.17303868;
            }
        } else {
            if ((input[6]) >= (223.5)) {
                var44 = -0.005534671;
            } else {
                var44 = -0.048765566;
            }
        }
    }
    double var45;
    if ((input[12]) >= (0.274624)) {
        if ((input[6]) >= (1133.5)) {
            if ((input[1]) >= (48.0)) {
                var45 = 0.04303009;
            } else {
                var45 = 0.00042062017;
            }
        } else {
            if ((input[0]) >= (24.5)) {
                var45 = -0.039173763;
            } else {
                var45 = 0.00873684;
            }
        }
    } else {
        if ((input[5]) >= (13466.0)) {
            if ((input[12]) >= (0.19506699)) {
                var45 = -0.0023827848;
            } else {
                var45 = -0.050280064;
            }
        } else {
            if ((input[11]) >= (848797.0)) {
                var45 = -0.19075961;
            } else {
                var45 = -0.062048472;
            }
        }
    }
    double var46;
    if ((input[2]) >= (2456155.0)) {
        if ((input[3]) >= (8592.5)) {
            if ((input[4]) >= (54.5)) {
                var46 = 0.029168472;
            } else {
                var46 = -0.0036507663;
            }
        } else {
            if ((input[11]) >= (4239.0)) {
                var46 = 0.08872689;
            } else {
                var46 = -0.05706197;
            }
        }
    } else {
        if ((input[2]) >= (2082225.0)) {
            if ((input[1]) >= (24.0)) {
                var46 = -0.08510555;
            } else {
                var46 = -0.04705223;
            }
        } else {
            if ((input[2]) >= (1858865.0)) {
                var46 = -0.07944767;
            } else {
                var46 = -0.09746029;
            }
        }
    }
    double var47;
    if ((input[2]) >= (41179650.0)) {
        if ((input[3]) >= (703677.5)) {
            if ((input[6]) >= (1139.5)) {
                var47 = 0.08921284;
            } else {
                var47 = -0.04143658;
            }
        } else {
            if ((input[14]) >= (0.5)) {
                var47 = 0.034928057;
            } else {
                var47 = -0.0014542833;
            }
        }
    } else {
        if ((input[3]) >= (48808.5)) {
            if ((input[0]) >= (24.5)) {
                var47 = -0.008381927;
            } else {
                var47 = -0.070625305;
            }
        } else {
            if ((input[4]) >= (59.5)) {
                var47 = 0.08268947;
            } else {
                var47 = 0.005362377;
            }
        }
    }
    double var48;
    if ((input[12]) >= (3.194275)) {
        if ((input[1]) >= (48.0)) {
            if ((input[2]) >= (6560275.0)) {
                var48 = 0.08813199;
            } else {
                var48 = -0.016381377;
            }
        } else {
            if ((input[4]) >= (52.5)) {
                var48 = 0.004383724;
            } else {
                var48 = -0.06141233;
            }
        }
    } else {
        if ((input[9]) >= (2731.5)) {
            if ((input[1]) >= (48.0)) {
                var48 = 0.0644962;
            } else {
                var48 = 0.008181555;
            }
        } else {
            if ((input[1]) >= (24.0)) {
                var48 = -0.015402371;
            } else {
                var48 = 0.010210062;
            }
        }
    }
    double var49;
    if ((input[12]) >= (0.52100646)) {
        if ((input[12]) >= (1.60402)) {
            if ((input[1]) >= (48.0)) {
                var49 = 0.052892964;
            } else {
                var49 = -0.025688982;
            }
        } else {
            if ((input[14]) >= (0.5)) {
                var49 = 0.029033123;
            } else {
                var49 = -0.00004345999;
            }
        }
    } else {
        if ((input[1]) >= (48.0)) {
            if ((input[11]) >= (1282666.5)) {
                var49 = -0.09376041;
            } else {
                var49 = 0.058892574;
            }
        } else {
            if ((input[6]) >= (14602.5)) {
                var49 = -0.009489416;
            } else {
                var49 = -0.04299458;
            }
        }
    }
    double var50;
    if ((input[2]) >= (28957150.0)) {
        if ((input[3]) >= (77585.5)) {
            if ((input[14]) >= (0.5)) {
                var50 = 0.0440103;
            } else {
                var50 = 0.008494096;
            }
        } else {
            if ((input[1]) >= (48.0)) {
                var50 = 0.108202755;
            } else {
                var50 = -0.02052842;
            }
        }
    } else {
        if ((input[3]) >= (60535.5)) {
            if ((input[13]) >= (48.0681)) {
                var50 = -0.018274456;
            } else {
                var50 = 0.057669938;
            }
        } else {
            if ((input[4]) >= (59.5)) {
                var50 = 0.07174023;
            } else {
                var50 = 0.0040968866;
            }
        }
    }
    double var51;
    if ((input[2]) >= (2397335.0)) {
        if ((input[3]) >= (7984.5)) {
            if ((input[2]) >= (8107685.0)) {
                var51 = 0.003972924;
            } else {
                var51 = -0.016444238;
            }
        } else {
            if ((input[11]) >= (4055.5)) {
                var51 = 0.080921166;
            } else {
                var51 = -0.04741947;
            }
        }
    } else {
        if ((input[2]) >= (2082225.0)) {
            if ((input[15]) >= (3.375)) {
                var51 = 0.07195344;
            } else {
                var51 = -0.054258354;
            }
        } else {
            if ((input[2]) >= (1858865.0)) {
                var51 = -0.076894484;
            } else {
                var51 = -0.09648661;
            }
        }
    }
    double var52;
    if ((input[7]) >= (12817.5)) {
        if ((input[1]) >= (24.0)) {
            if ((input[2]) >= (12382100.0)) {
                var52 = 0.047384944;
            } else {
                var52 = -0.006726698;
            }
        } else {
            if ((input[3]) >= (10768.5)) {
                var52 = -0.002430731;
            } else {
                var52 = 0.08925376;
            }
        }
    } else {
        if ((input[2]) >= (155316510.0)) {
            if ((input[3]) >= (163036.0)) {
                var52 = 0.11032992;
            } else {
                var52 = -0.15068196;
            }
        } else {
            if ((input[8]) >= (27.5)) {
                var52 = -0.0019305696;
            } else {
                var52 = -0.040373933;
            }
        }
    }
    double var53;
    if ((input[12]) >= (0.36002302)) {
        if ((input[12]) >= (2.075185)) {
            if ((input[1]) >= (48.0)) {
                var53 = 0.04230959;
            } else {
                var53 = -0.029844522;
            }
        } else {
            if ((input[3]) >= (53856.0)) {
                var53 = -0.0011950765;
            } else {
                var53 = 0.018209605;
            }
        }
    } else {
        if ((input[10]) >= (48707.0)) {
            if ((input[13]) >= (245.043)) {
                var53 = -0.02185215;
            } else {
                var53 = 0.034384564;
            }
        } else {
            if ((input[4]) >= (20.5)) {
                var53 = -0.0063686403;
            } else {
                var53 = -0.050115492;
            }
        }
    }
    double var54;
    if ((input[2]) >= (2397335.0)) {
        if ((input[2]) >= (141015000.0)) {
            if ((input[3]) >= (161768.0)) {
                var54 = 0.09654086;
            } else {
                var54 = -0.12681544;
            }
        } else {
            if ((input[7]) >= (26.5)) {
                var54 = 0.0016841904;
            } else {
                var54 = -0.036248624;
            }
        }
    } else {
        if ((input[2]) >= (2082225.0)) {
            if ((input[3]) >= (3997.5)) {
                var54 = -0.051748987;
            } else {
                var54 = 0.040435515;
            }
        } else {
            if ((input[2]) >= (1858865.0)) {
                var54 = -0.07439357;
            } else {
                var54 = -0.09548035;
            }
        }
    }
    double var55;
    if ((input[8]) >= (6043.5)) {
        if ((input[10]) >= (121627.0)) {
            if ((input[1]) >= (48.0)) {
                var55 = 0.067777276;
            } else {
                var55 = 0.028436914;
            }
        } else {
            if ((input[13]) >= (362.16602)) {
                var55 = -0.018435577;
            } else {
                var55 = 0.011263498;
            }
        }
    } else {
        if ((input[1]) >= (24.0)) {
            if ((input[2]) >= (18084050.0)) {
                var55 = 0.0019426256;
            } else {
                var55 = -0.02985541;
            }
        } else {
            if ((input[12]) >= (0.58678854)) {
                var55 = 0.0140327355;
            } else {
                var55 = -0.034250688;
            }
        }
    }
    double var56;
    if ((input[12]) >= (0.27268898)) {
        if ((input[12]) >= (3.194275)) {
            if ((input[1]) >= (48.0)) {
                var56 = 0.064444214;
            } else {
                var56 = -0.044432666;
            }
        } else {
            if ((input[3]) >= (9261.5)) {
                var56 = 0.0015537337;
            } else {
                var56 = 0.060538452;
            }
        }
    } else {
        if ((input[5]) >= (27182.5)) {
            if ((input[8]) >= (41044.5)) {
                var56 = -0.049566127;
            } else {
                var56 = 0.02696625;
            }
        } else {
            if ((input[4]) >= (20.5)) {
                var56 = -0.000396404;
            } else {
                var56 = -0.05629186;
            }
        }
    }
    double var57;
    if ((input[16]) >= (0.5)) {
        if ((input[13]) >= (48.06955)) {
            if ((input[6]) >= (879.5)) {
                var57 = 0.01059837;
            } else {
                var57 = -0.027910316;
            }
        } else {
            if ((input[11]) >= (41053.5)) {
                var57 = 0.09502031;
            } else {
                var57 = -0.017400287;
            }
        }
    } else {
        if ((input[4]) >= (54.5)) {
            if ((input[12]) >= (1.06967)) {
                var57 = 0.05402034;
            } else {
                var57 = -0.010158187;
            }
        } else {
            if ((input[4]) >= (47.5)) {
                var57 = -0.04770341;
            } else {
                var57 = -0.0068902816;
            }
        }
    }
    double var58;
    if ((input[2]) >= (2281325.0)) {
        if ((input[2]) >= (155316510.0)) {
            if ((input[3]) >= (163022.5)) {
                var58 = 0.10729357;
            } else {
                var58 = -0.104453996;
            }
        } else {
            if ((input[8]) >= (38.5)) {
                var58 = 0.0016457726;
            } else {
                var58 = -0.030226989;
            }
        }
    } else {
        if ((input[2]) >= (1858865.0)) {
            if ((input[15]) >= (3.375)) {
                var58 = 0.04759053;
            } else {
                var58 = -0.06352259;
            }
        } else {
            if ((input[15]) >= (3.125)) {
                var58 = -0.034887902;
            } else {
                var58 = -0.09540838;
            }
        }
    }
    double var59;
    if ((input[0]) >= (34.5)) {
        if ((input[1]) >= (48.0)) {
            if ((input[14]) >= (0.5)) {
                var59 = 0.084647976;
            } else {
                var59 = -0.010187124;
            }
        } else {
            if ((input[6]) >= (10641.5)) {
                var59 = -0.015175605;
            } else {
                var59 = -0.046148956;
            }
        }
    } else {
        if ((input[12]) >= (0.538386)) {
            if ((input[12]) >= (1.604325)) {
                var59 = -0.012173603;
            } else {
                var59 = 0.010185284;
            }
        } else {
            if ((input[1]) >= (48.0)) {
                var59 = 0.060309745;
            } else {
                var59 = -0.022099232;
            }
        }
    }
    double var60;
    if ((input[7]) >= (4031.5)) {
        if ((input[1]) >= (48.0)) {
            if ((input[2]) >= (9831600.0)) {
                var60 = 0.06476133;
            } else {
                var60 = -0.06758612;
            }
        } else {
            if ((input[0]) >= (34.5)) {
                var60 = -0.011929332;
            } else {
                var60 = 0.011877467;
            }
        }
    } else {
        if ((input[1]) >= (24.0)) {
            if ((input[2]) >= (17582150.0)) {
                var60 = -0.00013044449;
            } else {
                var60 = -0.028475821;
            }
        } else {
            if ((input[12]) >= (0.626765)) {
                var60 = 0.014358687;
            } else {
                var60 = -0.02392594;
            }
        }
    }
    double var61;
    if ((input[2]) >= (157331000.0)) {
        if ((input[3]) >= (163022.5)) {
            if ((input[13]) >= (80.585205)) {
                var61 = 0.10171344;
            } else {
                var61 = 0.114887;
            }
        } else {
            if ((input[8]) >= (1068.5)) {
                var61 = 0.060842168;
            } else {
                var61 = -0.17340945;
            }
        }
    } else {
        if ((input[6]) >= (199.5)) {
            if ((input[1]) >= (48.0)) {
                var61 = 0.02122913;
            } else {
                var61 = -0.0022151002;
            }
        } else {
            if ((input[3]) >= (409714.5)) {
                var61 = -0.090812735;
            } else {
                var61 = -0.008608064;
            }
        }
    }
    double var62;
    if ((input[3]) >= (9335.5)) {
        if ((input[2]) >= (7421950.0)) {
            if ((input[3]) >= (17334.5)) {
                var62 = 0.0041762977;
            } else {
                var62 = -0.032784466;
            }
        } else {
            if ((input[1]) >= (24.0)) {
                var62 = -0.041741215;
            } else {
                var62 = -0.005337492;
            }
        }
    } else {
        if ((input[11]) >= (4884.5)) {
            if ((input[4]) >= (24.5)) {
                var62 = 0.09530911;
            } else {
                var62 = 0.035698973;
            }
        } else {
            if ((input[3]) >= (6193.0)) {
                var62 = -0.070001505;
            } else {
                var62 = 0.0046957345;
            }
        }
    }
    double var63;
    if ((input[2]) >= (2281325.0)) {
        if ((input[7]) >= (13015.5)) {
            if ((input[1]) >= (24.0)) {
                var63 = 0.03347673;
            } else {
                var63 = 0.0010309265;
            }
        } else {
            if ((input[12]) >= (1.543165)) {
                var63 = -0.01744174;
            } else {
                var63 = 0.0013400032;
            }
        }
    } else {
        if ((input[2]) >= (1858865.0)) {
            if ((input[15]) >= (3.125)) {
                var63 = 0.017933851;
            } else {
                var63 = -0.060016353;
            }
        } else {
            if ((input[15]) >= (3.125)) {
                var63 = -0.031167626;
            } else {
                var63 = -0.09408358;
            }
        }
    }
    double var64;
    if ((input[12]) >= (0.27268898)) {
        if ((input[8]) >= (6053.5)) {
            if ((input[1]) >= (48.0)) {
                var64 = 0.06520699;
            } else {
                var64 = 0.009644041;
            }
        } else {
            if ((input[1]) >= (24.0)) {
                var64 = -0.008873684;
            } else {
                var64 = 0.008185218;
            }
        }
    } else {
        if ((input[9]) >= (1620.0)) {
            if ((input[12]) >= (0.1948945)) {
                var64 = 0.0019374166;
            } else {
                var64 = -0.04936172;
            }
        } else {
            if ((input[11]) >= (834980.5)) {
                var64 = -0.15684393;
            } else {
                var64 = -0.04928014;
            }
        }
    }
    double var65;
    if ((input[2]) >= (159392500.0)) {
        if ((input[3]) >= (163022.5)) {
            if ((input[13]) >= (80.585205)) {
                var65 = 0.10154165;
            } else {
                var65 = 0.11465172;
            }
        } else {
            if ((input[11]) >= (569633.0)) {
                var65 = -0.10804645;
            } else {
                var65 = 0.103479505;
            }
        }
    } else {
        if ((input[2]) >= (2983695.0)) {
            if ((input[4]) >= (52.5)) {
                var65 = 0.020151548;
            } else {
                var65 = -0.0017555355;
            }
        } else {
            if ((input[2]) >= (2082225.0)) {
                var65 = -0.030045507;
            } else {
                var65 = -0.08424444;
            }
        }
    }
    double var66;
    if ((input[12]) >= (4.367405)) {
        if ((input[1]) >= (48.0)) {
            if ((input[12]) >= (4.5180902)) {
                var66 = 0.07696862;
            } else {
                var66 = -0.09309136;
            }
        } else {
            if ((input[14]) >= (1.5)) {
                var66 = -0.0683536;
            } else {
                var66 = -0.031662926;
            }
        }
    } else {
        if ((input[6]) >= (19295.5)) {
            if ((input[1]) >= (24.0)) {
                var66 = 0.028667701;
            } else {
                var66 = -0.0055913753;
            }
        } else {
            if ((input[1]) >= (24.0)) {
                var66 = -0.009097155;
            } else {
                var66 = 0.009158698;
            }
        }
    }
    double var67;
    if ((input[2]) >= (141015000.0)) {
        if ((input[3]) >= (161768.0)) {
            if ((input[6]) >= (127.5)) {
                var67 = 0.09523794;
            } else {
                var67 = 0.017039316;
            }
        } else {
            if ((input[9]) >= (4601.5)) {
                var67 = 0.12401509;
            } else {
                var67 = -0.17982194;
            }
        }
    } else {
        if ((input[6]) >= (198.5)) {
            if ((input[1]) >= (48.0)) {
                var67 = 0.020194497;
            } else {
                var67 = -0.0021067006;
            }
        } else {
            if ((input[3]) >= (397471.5)) {
                var67 = -0.087338954;
            } else {
                var67 = -0.009410763;
            }
        }
    }
    double var68;
    if ((input[12]) >= (0.5531445)) {
        if ((input[12]) >= (1.543215)) {
            if ((input[1]) >= (48.0)) {
                var68 = 0.047825154;
            } else {
                var68 = -0.017979743;
            }
        } else {
            if ((input[14]) >= (0.5)) {
                var68 = 0.023929639;
            } else {
                var68 = -0.0003842582;
            }
        }
    } else {
        if ((input[1]) >= (48.0)) {
            if ((input[10]) >= (133097.0)) {
                var68 = -0.006811779;
            } else {
                var68 = 0.062109347;
            }
        } else {
            if ((input[4]) >= (20.5)) {
                var68 = 0.0113387965;
            } else {
                var68 = -0.028658563;
            }
        }
    }
    double var69;
    if ((input[3]) >= (9908.5)) {
        if ((input[3]) >= (15666.5)) {
            if ((input[2]) >= (5018480.0)) {
                var69 = 0.002372883;
            } else {
                var69 = -0.02388803;
            }
        } else {
            if ((input[0]) >= (24.5)) {
                var69 = 0.04317641;
            } else {
                var69 = -0.04471678;
            }
        }
    } else {
        if ((input[11]) >= (4420.5)) {
            if ((input[14]) >= (0.5)) {
                var69 = -0.016565137;
            } else {
                var69 = 0.059452202;
            }
        } else {
            if ((input[3]) >= (5974.5)) {
                var69 = -0.07683372;
            } else {
                var69 = 0.0042159697;
            }
        }
    }
    double var70;
    if ((input[3]) >= (46089.5)) {
        if ((input[13]) >= (42.1912)) {
            if ((input[6]) >= (1498.5)) {
                var70 = -0.0003362102;
            } else {
                var70 = -0.03031301;
            }
        } else {
            if ((input[2]) >= (4232015.0)) {
                var70 = 0.09541883;
            } else {
                var70 = -0.03912762;
            }
        }
    } else {
        if ((input[11]) >= (6855.5)) {
            if ((input[13]) >= (346.488)) {
                var70 = -0.023920825;
            } else {
                var70 = 0.016995631;
            }
        } else {
            if ((input[3]) >= (7526.5)) {
                var70 = -0.057751;
            } else {
                var70 = 0.017298544;
            }
        }
    }
    double var71;
    if ((input[2]) >= (159392500.0)) {
        if ((input[3]) >= (163022.5)) {
            if ((input[12]) >= (2.4616451)) {
                var71 = 0.041729297;
            } else {
                var71 = 0.10515177;
            }
        } else {
            if ((input[14]) >= (0.5)) {
                var71 = 0.09449651;
            } else {
                var71 = -0.0832853;
            }
        }
    } else {
        if ((input[2]) >= (2281325.0)) {
            if ((input[3]) >= (46089.5)) {
                var71 = -0.0036827128;
            } else {
                var71 = 0.009328937;
            }
        } else {
            if ((input[2]) >= (1858865.0)) {
                var71 = -0.05131894;
            } else {
                var71 = -0.09039282;
            }
        }
    }
    double var72;
    if ((input[12]) >= (0.423964)) {
        if ((input[12]) >= (1.6001999)) {
            if ((input[11]) >= (45182.5)) {
                var72 = 0.010998406;
            } else {
                var72 = -0.024528809;
            }
        } else {
            if ((input[15]) >= (2.125)) {
                var72 = 0.01126486;
            } else {
                var72 = -0.0057815365;
            }
        }
    } else {
        if ((input[10]) >= (55175.5)) {
            if ((input[11]) >= (1282666.5)) {
                var72 = -0.07999965;
            } else {
                var72 = 0.014122945;
            }
        } else {
            if ((input[4]) >= (20.5)) {
                var72 = 0.0005446476;
            } else {
                var72 = -0.033928;
            }
        }
    }
    double var73;
    if ((input[4]) >= (54.5)) {
        if ((input[13]) >= (85.88475)) {
            if ((input[12]) >= (1.1828899)) {
                var73 = 0.053890865;
            } else {
                var73 = 0.009130719;
            }
        } else {
            if ((input[14]) >= (0.5)) {
                var73 = 0.029906241;
            } else {
                var73 = -0.061473425;
            }
        }
    } else {
        if ((input[4]) >= (48.5)) {
            if ((input[1]) >= (48.0)) {
                var73 = 0.03571409;
            } else {
                var73 = -0.043300178;
            }
        } else {
            if ((input[4]) >= (24.5)) {
                var73 = 0.0322143;
            } else {
                var73 = -0.0028618413;
            }
        }
    }
    double var74;
    if ((input[2]) >= (134595500.0)) {
        if ((input[3]) >= (162991.5)) {
            if ((input[11]) >= (111849.5)) {
                var74 = 0.08883284;
            } else {
                var74 = 0.020513346;
            }
        } else {
            if ((input[6]) >= (7669.5)) {
                var74 = 0.016986009;
            } else {
                var74 = -0.23455627;
            }
        }
    } else {
        if ((input[6]) >= (381.5)) {
            if ((input[1]) >= (48.0)) {
                var74 = 0.02134431;
            } else {
                var74 = -0.00145707;
            }
        } else {
            if ((input[3]) >= (399542.0)) {
                var74 = -0.07747304;
            } else {
                var74 = -0.0018390609;
            }
        }
    }
    double var75;
    if ((input[0]) >= (34.5)) {
        if ((input[1]) >= (48.0)) {
            if ((input[14]) >= (0.5)) {
                var75 = 0.07579412;
            } else {
                var75 = -0.008815124;
            }
        } else {
            if ((input[6]) >= (2820.5)) {
                var75 = -0.019851837;
            } else {
                var75 = -0.06486741;
            }
        }
    } else {
        if ((input[15]) >= (1.875)) {
            if ((input[12]) >= (0.57075953)) {
                var75 = 0.006958031;
            } else {
                var75 = -0.011202937;
            }
        } else {
            if ((input[14]) >= (0.5)) {
                var75 = 0.053638857;
            } else {
                var75 = -0.042861395;
            }
        }
    }
    double var76;
    if ((input[6]) >= (19295.5)) {
        if ((input[13]) >= (328.401)) {
            if ((input[11]) >= (151473.0)) {
                var76 = 0.018159997;
            } else {
                var76 = -0.014020853;
            }
        } else {
            if ((input[2]) >= (15990650.0)) {
                var76 = 0.039207082;
            } else {
                var76 = 0.008961042;
            }
        }
    } else {
        if ((input[1]) >= (24.0)) {
            if ((input[2]) >= (18768450.0)) {
                var76 = 0.0014802834;
            } else {
                var76 = -0.021969048;
            }
        } else {
            if ((input[12]) >= (0.626644)) {
                var76 = 0.012670171;
            } else {
                var76 = -0.020284824;
            }
        }
    }
    double var77;
    if ((input[12]) >= (5.42623)) {
        if ((input[1]) >= (48.0)) {
            if ((input[2]) >= (6582595.0)) {
                var77 = 0.08014812;
            } else {
                var77 = -0.059871476;
            }
        } else {
            if ((input[14]) >= (1.5)) {
                var77 = -0.074863434;
            } else {
                var77 = -0.039493024;
            }
        }
    } else {
        if ((input[4]) >= (20.5)) {
            if ((input[4]) >= (46.5)) {
                var77 = -0.0015666856;
            } else {
                var77 = 0.030019013;
            }
        } else {
            if ((input[2]) >= (35690800.0)) {
                var77 = 0.011063288;
            } else {
                var77 = -0.0064727315;
            }
        }
    }
    double var78;
    if ((input[2]) >= (2281325.0)) {
        if ((input[3]) >= (9908.5)) {
            if ((input[3]) >= (16385.5)) {
                var78 = 0.00078748725;
            } else {
                var78 = -0.031321477;
            }
        } else {
            if ((input[11]) >= (4309.5)) {
                var78 = 0.041388914;
            } else {
                var78 = -0.048863277;
            }
        }
    } else {
        if ((input[2]) >= (1858865.0)) {
            if ((input[3]) >= (3489.0)) {
                var78 = -0.049530372;
            } else {
                var78 = 0.053586245;
            }
        } else {
            if ((input[15]) >= (3.125)) {
                var78 = -0.013300533;
            } else {
                var78 = -0.09036004;
            }
        }
    }
    double var79;
    if ((input[2]) >= (159392500.0)) {
        if ((input[3]) >= (163022.5)) {
            if ((input[12]) >= (2.4616451)) {
                var79 = 0.033432435;
            } else {
                var79 = 0.10349014;
            }
        } else {
            if ((input[8]) >= (1039.5)) {
                var79 = 0.067050725;
            } else {
                var79 = -0.09993691;
            }
        }
    } else {
        if ((input[4]) >= (52.5)) {
            if ((input[13]) >= (85.6582)) {
                var79 = 0.02845839;
            } else {
                var79 = -0.035306096;
            }
        } else {
            if ((input[4]) >= (48.5)) {
                var79 = -0.038633753;
            } else {
                var79 = 0.0002126959;
            }
        }
    }
    double var80;
    if ((input[1]) >= (48.0)) {
        if ((input[14]) >= (0.5)) {
            if ((input[2]) >= (5779250.0)) {
                var80 = 0.081795566;
            } else {
                var80 = -0.012573344;
            }
        } else {
            if ((input[10]) >= (96438.0)) {
                var80 = -0.022366412;
            } else {
                var80 = 0.04443022;
            }
        }
    } else {
        if ((input[13]) >= (99.26465)) {
            if ((input[0]) >= (34.5)) {
                var80 = -0.019538183;
            } else {
                var80 = 0.005609838;
            }
        } else {
            if ((input[3]) >= (30105.5)) {
                var80 = -0.0353775;
            } else {
                var80 = 0.007797307;
            }
        }
    }
    double var81;
    if ((input[12]) >= (0.234341)) {
        if ((input[11]) >= (6685.5)) {
            if ((input[3]) >= (9909.0)) {
                var81 = 0.00044577845;
            } else {
                var81 = 0.04289929;
            }
        } else {
            if ((input[3]) >= (7526.5)) {
                var81 = -0.05682927;
            } else {
                var81 = 0.014033163;
            }
        }
    } else {
        if ((input[10]) >= (169418.5)) {
            if ((input[5]) >= (13295.0)) {
                var81 = 0.08027428;
            } else {
                var81 = -0.25324017;
            }
        } else {
            if ((input[5]) >= (26622.5)) {
                var81 = 0.0075372057;
            } else {
                var81 = -0.04293933;
            }
        }
    }
    double var82;
    if ((input[13]) >= (386.84)) {
        if ((input[2]) >= (35242200.0)) {
            if ((input[8]) >= (11328.0)) {
                var82 = 0.042875428;
            } else {
                var82 = -0.008468793;
            }
        } else {
            if ((input[6]) >= (20306.0)) {
                var82 = -0.016100349;
            } else {
                var82 = -0.04209977;
            }
        }
    } else {
        if ((input[6]) >= (19294.5)) {
            if ((input[1]) >= (48.0)) {
                var82 = 0.068288155;
            } else {
                var82 = 0.016820384;
            }
        } else {
            if ((input[1]) >= (24.0)) {
                var82 = -0.0070457496;
            } else {
                var82 = 0.008912812;
            }
        }
    }
    double var83;
    if ((input[3]) >= (1919605.0)) {
        if ((input[6]) >= (1638.0)) {
            if ((input[1]) >= (48.0)) {
                var83 = 0.09664586;
            } else {
                var83 = 0.013036764;
            }
        } else {
            if ((input[13]) >= (130.34)) {
                var83 = -0.15439641;
            } else {
                var83 = 0.007854843;
            }
        }
    } else {
        if ((input[2]) >= (2164160.0)) {
            if ((input[13]) >= (334.2695)) {
                var83 = -0.012027145;
            } else {
                var83 = 0.0020400644;
            }
        } else {
            if ((input[2]) >= (1858865.0)) {
                var83 = -0.050230026;
            } else {
                var83 = -0.087220274;
            }
        }
    }
    double var84;
    if ((input[2]) >= (159392500.0)) {
        if ((input[3]) >= (163022.5)) {
            if ((input[12]) >= (2.4616451)) {
                var84 = 0.026541814;
            } else {
                var84 = 0.10289665;
            }
        } else {
            if ((input[11]) >= (569633.0)) {
                var84 = -0.0686896;
            } else {
                var84 = 0.09886919;
            }
        }
    } else {
        if ((input[12]) >= (0.213729)) {
            if ((input[8]) >= (8525.5)) {
                var84 = 0.010386706;
            } else {
                var84 = -0.0021107565;
            }
        } else {
            if ((input[10]) >= (169418.5)) {
                var84 = -0.22555566;
            } else {
                var84 = -0.039238445;
            }
        }
    }
    double var85;
    if ((input[1]) >= (48.0)) {
        if ((input[14]) >= (0.5)) {
            if ((input[2]) >= (6278830.0)) {
                var85 = 0.07792877;
            } else {
                var85 = -0.0000112859625;
            }
        } else {
            if ((input[10]) >= (96438.0)) {
                var85 = -0.020015843;
            } else {
                var85 = 0.040717762;
            }
        }
    } else {
        if ((input[13]) >= (107.204)) {
            if ((input[0]) >= (34.5)) {
                var85 = -0.01703483;
            } else {
                var85 = 0.0053697093;
            }
        } else {
            if ((input[3]) >= (30827.5)) {
                var85 = -0.030308476;
            } else {
                var85 = 0.0081657665;
            }
        }
    }
    double var86;
    if ((input[12]) >= (1.543455)) {
        if ((input[1]) >= (48.0)) {
            if ((input[2]) >= (12249450.0)) {
                var86 = 0.07082845;
            } else {
                var86 = -0.01043201;
            }
        } else {
            if ((input[4]) >= (52.5)) {
                var86 = 0.025773797;
            } else {
                var86 = -0.02098367;
            }
        }
    } else {
        if ((input[4]) >= (22.5)) {
            if ((input[4]) >= (42.5)) {
                var86 = 0.0056996713;
            } else {
                var86 = 0.036858555;
            }
        } else {
            if ((input[12]) >= (0.57075953)) {
                var86 = 0.0021189088;
            } else {
                var86 = -0.016599728;
            }
        }
    }
    double var87;
    if ((input[12]) >= (5.48256)) {
        if ((input[1]) >= (48.0)) {
            if ((input[2]) >= (6582595.0)) {
                var87 = 0.06649224;
            } else {
                var87 = -0.05318929;
            }
        } else {
            if ((input[14]) >= (1.5)) {
                var87 = -0.0686544;
            } else {
                var87 = -0.03510283;
            }
        }
    } else {
        if ((input[6]) >= (21863.5)) {
            if ((input[1]) >= (24.0)) {
                var87 = 0.022070227;
            } else {
                var87 = -0.0037665349;
            }
        } else {
            if ((input[13]) >= (346.512)) {
                var87 = -0.023864517;
            } else {
                var87 = -0.00017707857;
            }
        }
    }
    double var88;
    if ((input[2]) >= (4180835.0)) {
        if ((input[13]) >= (41.38675)) {
            if ((input[6]) >= (426.5)) {
                var88 = 0.0019882757;
            } else {
                var88 = -0.027614107;
            }
        } else {
            if ((input[11]) >= (41682.0)) {
                var88 = 0.09043436;
            } else {
                var88 = -0.008421141;
            }
        }
    } else {
        if ((input[1]) >= (24.0)) {
            if ((input[6]) >= (96.5)) {
                var88 = -0.050311565;
            } else {
                var88 = -0.089819424;
            }
        } else {
            if ((input[2]) >= (2054165.0)) {
                var88 = -0.006713766;
            } else {
                var88 = -0.07494633;
            }
        }
    }
    double var89;
    if ((input[2]) >= (132440000.0)) {
        if ((input[3]) >= (229147.0)) {
            if ((input[11]) >= (111947.5)) {
                var89 = 0.086081915;
            } else {
                var89 = 0.01735319;
            }
        } else {
            if ((input[5]) >= (5946.0)) {
                var89 = 0.02323054;
            } else {
                var89 = -0.15044875;
            }
        }
    } else {
        if ((input[8]) >= (17.5)) {
            if ((input[1]) >= (48.0)) {
                var89 = 0.013476061;
            } else {
                var89 = -0.0013801678;
            }
        } else {
            if ((input[3]) >= (352158.5)) {
                var89 = -0.06865402;
            } else {
                var89 = -0.01051155;
            }
        }
    }
    double var90;
    if ((input[12]) >= (0.5048915)) {
        if ((input[10]) >= (30419.5)) {
            if ((input[14]) >= (0.5)) {
                var90 = 0.009067086;
            } else {
                var90 = -0.0073508704;
            }
        } else {
            if ((input[13]) >= (74.5586)) {
                var90 = 0.02082718;
            } else {
                var90 = -0.01586901;
            }
        }
    } else {
        if ((input[10]) >= (52668.0)) {
            if ((input[13]) >= (118.0925)) {
                var90 = -0.0001271494;
            } else {
                var90 = 0.051437646;
            }
        } else {
            if ((input[3]) >= (53616.0)) {
                var90 = -0.036241956;
            } else {
                var90 = -0.008024352;
            }
        }
    }
    double var91;
    if ((input[12]) >= (3.194275)) {
        if ((input[4]) >= (52.5)) {
            if ((input[13]) >= (46.165047)) {
                var91 = 0.023811826;
            } else {
                var91 = -0.15801468;
            }
        } else {
            if ((input[1]) >= (48.0)) {
                var91 = 0.041428056;
            } else {
                var91 = -0.036534775;
            }
        }
    } else {
        if ((input[4]) >= (22.5)) {
            if ((input[4]) >= (46.5)) {
                var91 = 0.00047169646;
            } else {
                var91 = 0.027393667;
            }
        } else {
            if ((input[17]) >= (0.375)) {
                var91 = 0.00084301515;
            } else {
                var91 = -0.016693465;
            }
        }
    }
    double var92;
    if ((input[3]) >= (1963680.0)) {
        if ((input[6]) >= (1638.0)) {
            if ((input[13]) >= (369.95898)) {
                var92 = 0.05151966;
            } else {
                var92 = 0.098197125;
            }
        } else {
            if ((input[13]) >= (130.34)) {
                var92 = -0.12419184;
            } else {
                var92 = 0.04718494;
            }
        }
    } else {
        if ((input[4]) >= (54.5)) {
            if ((input[12]) >= (1.112705)) {
                var92 = 0.03331403;
            } else {
                var92 = -0.016514633;
            }
        } else {
            if ((input[4]) >= (46.5)) {
                var92 = -0.026220297;
            } else {
                var92 = 0.00037261375;
            }
        }
    }
    double var93;
    if ((input[2]) >= (56842000.0)) {
        if ((input[3]) >= (381001.5)) {
            if ((input[6]) >= (1595.0)) {
                var93 = 0.08590033;
            } else {
                var93 = 0.017519673;
            }
        } else {
            if ((input[11]) >= (291795.5)) {
                var93 = -0.09417007;
            } else {
                var93 = 0.018014623;
            }
        }
    } else {
        if ((input[13]) >= (454.1445)) {
            if ((input[6]) >= (34245.0)) {
                var93 = -0.01024733;
            } else {
                var93 = -0.037628394;
            }
        } else {
            if ((input[6]) >= (21864.0)) {
                var93 = 0.0146639515;
            } else {
                var93 = -0.0024088079;
            }
        }
    }
    double var94;
    if ((input[12]) >= (1.453865)) {
        if ((input[1]) >= (48.0)) {
            if ((input[2]) >= (11876100.0)) {
                var94 = 0.069475226;
            } else {
                var94 = -0.007912247;
            }
        } else {
            if ((input[4]) >= (52.5)) {
                var94 = 0.023094067;
            } else {
                var94 = -0.018496169;
            }
        }
    } else {
        if ((input[4]) >= (25.5)) {
            if ((input[4]) >= (41.5)) {
                var94 = 0.004278555;
            } else {
                var94 = 0.039800707;
            }
        } else {
            if ((input[17]) >= (0.375)) {
                var94 = 0.0023496074;
            } else {
                var94 = -0.015324603;
            }
        }
    }
    double var95;
    if ((input[12]) >= (0.5527795)) {
        if ((input[10]) >= (25399.5)) {
            if ((input[6]) >= (4554.5)) {
                var95 = 0.0040639373;
            } else {
                var95 = -0.009932107;
            }
        } else {
            if ((input[2]) >= (10646300.0)) {
                var95 = 0.034406032;
            } else {
                var95 = 0.0029809957;
            }
        }
    } else {
        if ((input[1]) >= (48.0)) {
            if ((input[3]) >= (644124.5)) {
                var95 = -0.016593467;
            } else {
                var95 = 0.048312772;
            }
        } else {
            if ((input[5]) >= (2662.5)) {
                var95 = -0.0083388835;
            } else {
                var95 = -0.031921532;
            }
        }
    }
    double var96;
    if ((input[2]) >= (132440000.0)) {
        if ((input[3]) >= (229147.0)) {
            if ((input[11]) >= (111947.5)) {
                var96 = 0.08200491;
            } else {
                var96 = 0.016372979;
            }
        } else {
            if ((input[12]) >= (0.67457)) {
                var96 = -0.086772196;
            } else {
                var96 = 0.098676465;
            }
        }
    } else {
        if ((input[6]) >= (169.5)) {
            if ((input[3]) >= (9261.5)) {
                var96 = -0.00036252695;
            } else {
                var96 = 0.028285092;
            }
        } else {
            if ((input[0]) >= (29.5)) {
                var96 = -0.08467903;
            } else {
                var96 = -0.0148712015;
            }
        }
    }
    double var97;
    if ((input[2]) >= (2084065.0)) {
        if ((input[3]) >= (1829005.0)) {
            if ((input[6]) >= (1634.5)) {
                var97 = 0.08331045;
            } else {
                var97 = -0.11006023;
            }
        } else {
            if ((input[15]) >= (3.125)) {
                var97 = 0.015006947;
            } else {
                var97 = -0.0012097087;
            }
        }
    } else {
        if ((input[2]) >= (1680815.0)) {
            if ((input[10]) >= (2528.0)) {
                var97 = -0.05833108;
            } else {
                var97 = 0.056512106;
            }
        } else {
            if ((input[15]) >= (3.125)) {
                var97 = 0.0026827813;
            } else {
                var97 = -0.092623174;
            }
        }
    }
    double var98;
    if ((input[11]) >= (6685.5)) {
        if ((input[3]) >= (46089.5)) {
            if ((input[13]) >= (44.379898)) {
                var98 = -0.003547629;
            } else {
                var98 = 0.0534891;
            }
        } else {
            if ((input[3]) >= (20183.5)) {
                var98 = 0.015367411;
            } else {
                var98 = -0.0052213706;
            }
        }
    } else {
        if ((input[3]) >= (7526.5)) {
            if ((input[2]) >= (9488575.0)) {
                var98 = 0.013976014;
            } else {
                var98 = -0.058965456;
            }
        } else {
            if ((input[11]) >= (3443.0)) {
                var98 = 0.025088897;
            } else {
                var98 = -0.04846261;
            }
        }
    }
    double var99;
    if ((input[2]) >= (54326050.0)) {
        if ((input[3]) >= (382051.0)) {
            if ((input[9]) >= (202.5)) {
                var99 = 0.07634499;
            } else {
                var99 = 0.011196314;
            }
        } else {
            if ((input[11]) >= (281837.5)) {
                var99 = -0.076485954;
            } else {
                var99 = 0.016640252;
            }
        }
    } else {
        if ((input[13]) >= (454.1445)) {
            if ((input[6]) >= (30817.5)) {
                var99 = -0.011306531;
            } else {
                var99 = -0.036376096;
            }
        } else {
            if ((input[6]) >= (23471.5)) {
                var99 = 0.0141616305;
            } else {
                var99 = -0.0021689327;
            }
        }
    }
    double var100;
    var100 = (1.0) / ((1.0) + (exp((0.0) - ((((((((((((((((((((((((((((((((((((((((((((((((((((((((((((((((((((((((((((((((((((((((((((((((((((var0) + (var1)) + (var2)) + (var3)) + (var4)) + (var5)) + (var6)) + (var7)) + (var8)) + (var9)) + (var10)) + (var11)) + (var12)) + (var13)) + (var14)) + (var15)) + (var16)) + (var17)) + (var18)) + (var19)) + (var20)) + (var21)) + (var22)) + (var23)) + (var24)) + (var25)) + (var26)) + (var27)) + (var28)) + (var29)) + (var30)) + (var31)) + (var32)) + (var33)) + (var34)) + (var35)) + (var36)) + (var37)) + (var38)) + (var39)) + (var40)) + (var41)) + (var42)) + (var43)) + (var44)) + (var45)) + (var46)) + (var47)) + (var48)) + (var49)) + (var50)) + (var51)) + (var52)) + (var53)) + (var54)) + (var55)) + (var56)) + (var57)) + (var58)) + (var59)) + (var60)) + (var61)) + (var62)) + (var63)) + (var64)) + (var65)) + (var66)) + (var67)) + (var68)) + (var69)) + (var70)) + (var71)) + (var72)) + (var73)) + (var74)) + (var75)) + (var76)) + (var77)) + (var78)) + (var79)) + (var80)) + (var81)) + (var82)) + (var83)) + (var84)) + (var85)) + (var86)) + (var87)) + (var88)) + (var89)) + (var90)) + (var91)) + (var92)) + (var93)) + (var94)) + (var95)) + (var96)) + (var97)) + (var98)) + (var99)))));
    memcpy(output, (double[]){(1.0) - (var100), var100}, 2 * sizeof(double));
}
